svm_type c_svc
kernel_type rbf
gamma 0.0163934
nr_class 2
total_sv 66
rho 0.594975
label 1 0
probA -5.59629
probB 0.211207
nr_sv 16 50
SV
0.7368920275555194 0:-0.52 1:3.12 2:8.97 3:0 4:0 5:0.05 6:0.03 7:0.06 8:0.23 9:0.03 10:0.05 11:0.15 12:-0.12 13:0.34 14:1.76 15:-1.68 16:-1.19 17:1.84 18:0 19:0 20:0 21:0.52 22:3.12 23:8.98 24:-0.57 25:3.06 26:8.83 27:-0.48 28:3.23 29:9.58 30:9.52 31:0.08 32:-0.02 33:-0 34:0.03 35:0 36:0 37:0.19 38:0.05 39:0.01 40:0.14 41:0.03 42:0.01 43:1.26 44:-1.89 45:-1.66 46:-0.33 47:2.48 48:2.15 49:0.4 50:0.2 51:0.3 52:0.19 53:0.05 54:0.01 55:-0.04 56:-0.17 57:-0.04 58:0.46 59:0.02 60:0.02 61:0.11 
0.2142199351262999 0:-0.55 1:3.09 2:8.7 3:0.01 4:0.04 5:0.47 6:0.12 7:0.2 8:0.69 9:0.09 10:0.15 11:0.57 12:-0.04 13:-0.21 14:0.38 15:-1.64 16:-1.11 17:-1.49 18:0 19:0 20:0 21:0.56 22:3.1 23:8.73 24:-0.72 25:2.73 26:7.89 27:-0.39 28:3.37 29:9.75 30:9.26 31:-0.13 32:0.05 33:0.01 34:0.09 35:0.01 36:0 37:0.3 38:0.08 39:0.04 40:0.25 41:0.06 42:0.03 43:-0.47 44:0.5 45:-0.85 46:-1.45 47:-1.28 48:0.08 49:0.3 50:0.3 51:0.2 52:0.31 53:0.09 54:0.04 55:-0.64 56:-0.04 57:-0.09 58:0.21 59:0.18 60:0.07 61:0.26 
0.03482699560250075 0:-0.57 1:2.97 2:9.1 3:0.04 4:0.01 5:0.23 6:0.19 7:0.11 8:0.48 9:0.13 10:0.08 11:0.39 12:-0.51 13:-0.73 14:-0.11 15:-0.25 16:-0.47 17:-1.25 18:0 19:0 20:0 21:0.6 22:2.97 23:9.11 24:-0.98 25:2.73 26:8.26 27:-0.26 28:3.1 29:9.75 30:9.59 31:0.03 32:0.02 33:-0.01 34:0.03 35:0.01 36:0 37:0.18 38:0.08 39:0.05 40:0.12 41:0.06 42:0.04 43:-0.96 44:0.28 45:-0.63 46:0.18 47:-1.09 48:-1.1 49:0.3 50:0.4 51:0.3 52:0.18 53:0.08 54:0.05 55:-0.39 56:-0.11 57:-0.11 58:0.24 59:0.17 60:0.05 61:0.18 
0.4457373499580097 0:-0.61 1:3.02 2:9.03 3:0 4:0.01 5:0.07 6:0.03 7:0.09 8:0.27 9:0.02 10:0.06 11:0.19 12:0.68 13:1.5 14:-0.11 15:-0.07 16:1.09 17:-0.69 18:0 19:0 20:0 21:0.61 22:3.02 23:9.03 24:-0.66 25:2.95 26:8.52 27:-0.55 28:3.26 29:9.47 30:9.54 31:0.14 32:-0.01 33:0.02 34:0.02 35:0 36:0 37:0.15 38:0.03 39:0.01 40:0.12 41:0.03 42:0.01 43:0.54 44:0.01 45:-0.16 46:-1.53 47:-1.44 48:-1.71 49:0.1 50:0.5 51:0 52:0.2 53:0.03 54:0.02 55:-0 56:-0.06 57:0 58:0.38 59:0.04 60:0.04 61:0.15 
0.3591444597261788 0:-0.6 1:3.17 2:8.87 3:0 4:0.02 5:0.24 6:0.04 7:0.13 8:0.49 9:0.03 10:0.11 11:0.41 12:0.51 13:-0.33 14:-0.46 15:-0.65 16:-1.76 17:-1.48 18:0 19:0 20:0 21:0.6 22:3.17 23:8.89 24:-0.66 25:2.98 26:8.08 27:-0.52 28:3.32 29:9.47 30:9.44 31:0.08 32:0.01 33:0.02 34:0.05 35:0 36:0 37:0.22 38:0.04 39:0.02 40:0.18 41:0.03 42:0.02 43:0.05 44:-0.65 45:-0.19 46:-1.73 47:-1.45 48:-1.74 49:0.1 50:0.2 51:0.1 52:0.22 53:0.04 54:0.02 55:-0.19 56:-0.06 57:-0.01 58:0.38 59:0.05 60:0.04 61:0.2 
0.1974387128946272 0:0.9 1:4.54 2:8.27 3:0.05 4:0.02 5:0.07 6:0.23 7:0.13 8:0.26 9:0.14 10:0.09 11:0.15 12:-1.24 13:0.88 14:-1.77 15:1.24 16:-0.27 17:2.31 18:0 19:0 20:0 21:0.92 22:4.54 23:8.27 24:0.33 25:4.38 26:7.57 27:1.22 28:4.83 29:8.55 30:9.48 31:0.03 32:0.01 33:0.02 34:0 35:0 36:0 37:0.01 38:0.03 39:0.02 40:0.01 41:0.03 42:0.01 43:-0.05 44:0.41 45:0.32 46:-1.11 47:-0.98 48:-1.35 49:0 50:0.3 51:0.1 52:0.03 53:0.03 54:0.03 55:0 56:-0.04 57:-0 58:0.05 59:0.08 60:0.05 61:0.05 
0.07866270000681423 0:0.45 1:6.97 2:6.42 3:0 4:0 5:0.01 6:0.02 7:0.03 8:0.11 9:0.02 10:0.02 11:0.1 12:0.32 13:-1.85 14:-0.51 15:-1.44 16:2.39 17:-1.4 18:0 19:0 20:0 21:0.45 22:6.97 23:6.42 24:0.42 25:6.89 26:6.22 27:0.48 28:6.99 29:6.54 30:9.48 31:0 32:-0 33:-0 34:0 35:0 36:0 37:0.02 38:0.01 39:0.01 40:0.01 41:0.01 42:0.01 43:0.47 44:0.18 45:-0.58 46:-1.4 47:-1.12 48:-1.27 49:0.4 50:0.4 51:0.2 52:0.02 53:0.01 54:0.01 55:-0.01 56:-0.01 57:-0.02 58:0.03 59:0.01 60:0.01 61:0.02 
0.3059935544464955 0:0.47 1:7.07 2:6.27 3:0 4:0 5:0.01 6:0.04 7:0.04 8:0.08 9:0.03 10:0.03 11:0.05 12:0.2 13:-0.46 14:1.91 15:-1.79 16:-1.23 17:2.54 18:0 19:0 20:0 21:0.47 22:7.07 23:6.27 24:0.43 25:7 26:6.21 27:0.52 28:7.13 29:6.48 30:9.46 31:-0.01 32:0 33:0.02 34:0 35:0 36:0 37:0.01 38:0.01 39:0.01 40:0.01 41:0.01 42:0.01 43:-0.04 44:-0.75 45:0.54 46:-1.37 47:-0.5 48:-1.22 49:0.2 50:0.4 51:0 52:0.02 53:0.01 54:0.02 55:-0.04 56:-0.02 57:0.01 58:0.01 59:0.01 60:0.03 61:0.02 
0.09957841371453674 0:0.42 1:4.81 2:8.15 3:0 4:0 5:0.01 6:0.04 7:0.02 8:0.09 9:0.03 10:0.02 11:0.07 12:-0.18 13:0.21 14:-0.35 15:-1.29 16:-1.58 17:-1.07 18:0 19:0 20:0 21:0.42 22:4.81 23:8.15 24:0.36 25:4.78 26:7.98 27:0.48 28:4.85 29:8.28 30:9.47 31:0.01 32:0.02 33:0.01 34:0 35:0 36:0 37:0.03 38:0.02 39:0.01 40:0.02 41:0.01 42:0.01 43:-0.94 44:-2.01 45:-0.19 46:-0.86 47:2.75 48:-1.88 49:0.1 50:0.1 51:0.4 52:0.03 53:0.03 54:0.01 55:-0.04 56:-0.03 57:-0 58:0.03 59:0.03 60:0.01 61:0.04 
0.4748213105335573 0:0.76 1:6.22 2:7.06 3:0 4:0 5:0 6:0.01 7:0.04 8:0.07 9:0.01 10:0.04 11:0.06 12:-0.36 13:-0.18 14:-0.04 15:-1.15 16:-1.74 17:-1.77 18:0 19:0 20:0 21:0.76 22:6.22 23:7.06 24:0.74 25:6.15 26:6.95 27:0.77 28:6.26 29:7.15 30:9.44 31:-0 32:0 33:-0 34:0 35:0 36:0 37:0.03 38:0.02 39:0.01 40:0.02 41:0.01 42:0 43:1.72 44:1.5 45:-1.26 46:2.09 47:1.44 48:1.04 49:0.4 50:0.3 51:0.5 52:0.02 53:0.01 54:0.01 55:-0.03 56:-0.01 57:-0.02 58:0.07 59:0.04 60:0.01 61:0.02 
1.092240625878168 0:-0.15 1:6.82 2:6.86 3:2.28 4:2.57 5:1.36 6:1.51 7:1.6 8:1.17 9:1.08 10:1.3 11:0.95 12:0.05 13:-0.13 14:0.22 15:-1.23 16:-1.22 17:-1.44 18:0.2 19:0 20:0 21:1.44 22:6.99 23:6.95 24:-2.46 25:4 26:5.1 27:2.24 28:9.06 29:8.69 30:9.9 31:-0.11 32:0.23 33:0.03 34:0.14 35:0.18 36:0.19 37:0.37 38:0.42 39:0.43 40:0.3 41:0.36 42:0.37 43:0.35 44:0.24 45:0.51 46:-1.37 47:-1.41 48:-1.38 49:0.2 50:0.3 51:0.3 52:0.37 53:0.46 54:0.41 55:-0.53 56:-0.3 57:-0.47 58:0.56 59:0.98 60:0.81 61:0.66 
0.3133148376300632 0:1.29 1:7.83 2:5.4 3:1.7 4:0.68 5:1.96 6:1.3 7:0.83 8:1.4 9:1.1 10:0.55 11:1.17 12:0.11 13:-0.83 14:0.57 15:-1.76 16:-0.05 17:-1.34 18:0.3 19:0 20:0 21:1.79 22:7.87 23:5.56 24:-0.25 25:6.01 26:3.89 27:3.2 28:9.03 29:7.97 30:9.71 31:0.44 32:0.07 33:0.26 34:0.19 35:0.3 36:0.05 37:0.43 38:0.55 39:0.22 40:0.33 41:0.46 42:0.19 43:-0.45 44:0.11 45:-0.3 46:-1.19 47:-1.73 48:-1.62 49:0.1 50:0.3 51:0.1 52:0.6 53:0.53 54:0.34 55:-0.33 56:-0.62 57:-0.1 58:1.01 59:0.86 60:0.51 61:0.81 
0.4087972290060766 0:1.4 1:7.9 2:5.04 3:1.42 4:0.14 5:0.41 6:1.19 7:0.37 8:0.64 9:0.95 10:0.25 11:0.53 12:0.01 13:-1.36 14:-0.24 15:-1.36 16:0.97 17:-1.43 18:0.2 19:0 20:0 21:1.8 22:7.9 23:5.08 24:-0.58 25:6.98 26:3.89 27:3.2 28:8.25 29:5.72 30:9.55 31:0.01 32:-0.14 33:0.11 34:0.11 35:0.09 36:0.04 37:0.33 38:0.29 39:0.2 40:0.26 41:0.23 42:0.17 43:0.83 44:-0.42 45:0.73 46:-0.63 47:-1.32 48:-1.15 49:0.1 50:0.2 51:0.3 52:0.32 53:0.31 54:0.22 55:-0.33 56:-0.62 57:-0.1 58:0.71 59:0.24 60:0.5 61:0.39 
0.6093032187282428 0:0.15 1:7.86 2:4.76 3:0.03 4:0.02 5:0.86 6:0.19 7:0.13 8:0.93 9:0.12 10:0.11 11:0.77 12:-0.83 13:0.28 14:0.27 15:0.27 16:-1.47 17:-1.62 18:0.1 19:0 20:0 21:0.23 22:7.86 23:4.84 24:-0.28 25:7.7 26:3.68 27:0.4 28:8.07 29:6.21 30:9.22 31:0.03 32:-0.02 33:0.02 34:0.2 35:0.01 36:0.01 37:0.44 38:0.1 39:0.08 40:0.38 41:0.09 42:0.06 43:-0.19 44:0.27 45:-0.13 46:-1.83 47:-1.74 48:-1.62 49:0.1 50:0.2 51:0.1 52:0.42 53:0.09 54:0.07 55:-0.62 56:-0.15 57:-0.1 58:0.53 59:0.14 60:0.12 61:0.41 
0.08509820415600948 0:0.27 1:7.79 2:5.09 3:0.13 4:0.01 5:0.92 6:0.37 7:0.11 8:0.96 9:0.29 10:0.09 11:0.83 12:0.34 13:0.18 14:-0.53 15:-1.26 16:-1.62 17:-1.67 18:0.2 19:0 20:0 21:0.44 22:7.79 23:5.17 24:-0.28 25:7.64 26:3.68 27:0.88 28:7.97 29:5.98 30:9.35 31:-0.39 32:-0 33:0.09 34:0.03 35:0.01 36:0 37:0.17 38:0.11 39:0.04 40:0.11 41:0.1 42:0.03 43:1.05 44:0.15 45:-0.13 46:0.72 47:-1.81 48:-1.23 49:0.1 50:0.2 51:0 52:0.42 53:0.11 54:0.1 55:-0.62 56:-0.15 57:0.02 58:0.01 59:0.16 60:0.16 61:0.42 
1.192774841364941 0:-0.17 1:4.31 2:8.39 3:0.48 4:0.2 5:0.04 6:0.7 7:0.45 8:0.2 9:0.4 10:0.28 11:0.13 12:-2.27 13:-2.04 14:1.92 15:3.56 16:2.76 17:2.33 18:0.2 19:0 20:0 21:0.68 22:4.33 23:8.39 24:-2.15 25:3.07 26:8.26 27:0.08 28:4.51 29:8.94 30:9.47 31:0.01 32:-0.01 33:0.03 34:0 35:0 36:0.01 37:0.04 38:0.03 39:0.08 40:0.02 41:0.02 42:0.05 43:2.08 44:-1.14 45:1.87 46:2.97 47:1.05 48:2.12 49:0.1 50:0.4 51:0.4 52:0.04 53:0.03 54:0.08 55:-0.01 56:-0.08 57:-0.01 58:0.11 59:0.02 60:0.25 61:0.05 
-0.0232976826248045 0:-0.54 1:4.74 2:9.37 3:0.13 4:0.04 5:0.2 6:0.37 7:0.21 8:0.44 9:0.32 10:0.14 11:0.31 12:-0.28 13:1.46 14:-1.21 15:-1.76 16:1.18 17:0.75 18:0.4 19:0.4 20:0.4 21:0.64 22:4.75 23:9.38 24:-1.13 25:0 26:0 27:-0.17 28:5.28 29:9.86 30:10.53 31:-0.21 32:-1.18 33:-0.44 34:0.03 35:0.42 36:0.11 37:0.18 38:0.65 39:0.33 40:0.16 41:0.57 42:0.3 43:0.35 44:-0.09 45:0.02 46:-1.82 47:-1.94 48:-1.97 49:0.5 50:0.4 51:0.4 52:0.27 53:1.33 54:0.54 55:-0.39 56:-1.93 57:-0.81 58:0.05 59:-0.37 60:-0.02 61:1.29 
-0.08703573238218922 0:-2.78 1:5.62 2:7.67 3:0 4:0 5:0 6:0.06 7:0.03 8:0.06 9:0.05 10:0.02 11:0.04 12:-0.39 13:0.34 14:-0.85 15:-1.75 16:-0.72 17:0.22 18:0.4 19:0.4 20:0.4 21:2.78 22:5.62 23:7.67 24:-2.86 25:0 26:0 27:-2.71 28:5.67 29:7.74 30:9.9 31:-0.07 32:0.08 33:-0.02 34:0 35:0 36:0 37:0.02 38:0.02 39:0 40:0.02 41:0.01 42:0 43:0.56 44:-1.64 45:-1.49 46:-1.59 47:1.92 48:1.62 49:0.4 50:0.4 51:0.4 52:0.07 53:0.08 54:0.02 55:-0.1 56:0 57:-0.03 58:-0.04 59:0.1 60:-0.01 61:0.11 
-0.405398932184475 0:-2.25 1:0.37 2:9.36 3:0 4:0 5:0 6:0.01 7:0.01 8:0.01 9:0.01 10:0.01 11:0.01 12:0.15 13:-0.37 14:0.45 15:-1.73 16:-0.99 17:-1.26 18:0.4 19:0.4 20:0.4 21:2.25 22:0.37 23:9.36 24:-2.26 25:0 26:0 27:-2.23 28:0.38 29:9.38 30:9.63 31:-3.51 32:-2.36 33:3.51 34:122.43 35:55.48 36:122.44 37:11.06 38:7.45 39:11.07 40:6.3 41:4.24 42:6.3 43:-2.28 44:-2.28 45:2.28 46:3.57 47:3.57 48:3.57 49:0.9 50:0.8 51:1 52:11.07 53:7.45 54:11.07 55:-35 56:-23.56 57:-0.01 58:0.01 59:0.01 60:35 61:5.5 
-0.01189222788630799 0:-2.25 1:0.36 2:9.36 3:0 4:0 5:0 6:0.02 7:0.01 8:0.01 9:0.01 10:0.01 11:0.01 12:0.33 13:0.19 14:1.45 15:-1.23 16:-1.24 17:1.19 18:0.4 19:0.4 20:0.4 21:2.25 22:0.36 23:9.36 24:-2.27 25:0 26:0 27:-2.22 28:0.38 29:9.38 30:9.63 31:-0 32:0 33:0 34:0 35:0 36:0 37:0 38:0 39:0 40:0 41:0 42:0 43:-0.16 44:0.14 45:0.23 46:-1.61 47:-1.53 48:-1.35 49:0.7 50:1 51:1 52:0 53:0 54:0 55:-0 56:-0 57:-0.01 58:0 59:0.01 60:0.01 61:0.01 
-0.3633165756234763 0:0.05 1:0.23 2:9.26 3:0.02 4:0.02 5:0 6:0.13 7:0.15 8:0.03 9:0.08 10:0.08 11:0.02 12:-2.18 13:2.2 14:-1.02 15:3.28 16:3.34 17:0.53 18:0.5 19:0.4 20:0.4 21:0.14 22:0.27 23:9.26 24:-0.33 25:0 26:0 27:0.11 28:0.65 29:9.3 30:9.26 31:-0.54 32:0.18 33:0.07 34:1.35 35:0.16 36:0 37:1.16 38:0.41 39:0.02 40:0.66 41:0.23 42:0.01 43:-2.28 44:2.28 45:1.96 46:3.57 47:3.57 48:2.6 49:0.4 50:0.4 51:0.4 52:1.23 53:0.42 54:0.07 55:-3.85 56:0 57:0 58:-0.16 59:1.33 60:0.11 61:0.58 
-0.108608568623006 0:0.1 1:0.2 2:9.27 3:0 4:0 5:0 6:0.02 7:0.01 8:0.03 9:0.01 10:0.01 11:0.02 12:-0.18 13:0.24 14:-1.15 15:-1.87 16:-1.4 17:0.31 18:0.4 19:0.4 20:0.4 21:0.1 22:0.2 23:9.27 24:0 25:0 26:0 27:0.11 28:0.22 29:9.3 30:9.27 31:-0.17 32:0.06 33:0.06 34:0 35:0 36:0 37:0.01 38:0 39:0 40:0 41:0 42:0 43:0.53 44:0.43 45:-0.22 46:-0.15 47:-1.38 48:-1.77 49:0.4 50:0.4 51:0.4 52:0.17 53:0.06 54:0.06 55:-0.18 56:0 57:0 58:-0.16 59:0.06 60:0.06 61:0.19 
-0.06243886420681234 0:0.1 1:0.18 2:9.25 3:0 4:0 5:0 6:0.02 7:0.02 8:0.03 9:0.01 10:0.01 11:0.02 12:0.18 13:-0.05 14:-0.21 15:-1.36 16:-0.42 17:-1.89 18:0.4 19:0.4 20:0.4 21:0.1 22:0.18 23:9.25 24:0 25:0 26:0 27:0.12 28:0.22 29:9.28 30:9.25 31:-0.17 32:0.05 33:0.06 34:0 35:0 36:0 37:0 38:0.01 39:0 40:0 41:0.01 42:0 43:0.38 44:0.33 45:-1.03 46:-1.56 47:-1.57 48:0.56 49:0.4 50:0.4 51:0.4 52:0.17 53:0.05 54:0.06 55:-0.17 56:0 57:0 58:-0.16 59:0.06 60:0.07 61:0.19 
-0.05568560358074885 0:0.09 1:0.19 2:9.24 3:0 4:0 5:0 6:0.02 7:0.03 8:0.02 9:0.01 10:0.03 11:0.01 12:0.72 13:0 14:-0.56 15:-0.77 16:-1.78 17:-0.8 18:0.4 19:0.4 20:0.4 21:0.09 22:0.2 23:9.24 24:0 25:0 26:0 27:0.12 28:0.24 29:9.26 30:9.24 31:-0.17 32:0.05 33:0.06 34:0 35:0 36:0 37:0 38:0.01 39:0 40:0 41:0 42:0 43:0.11 44:0.14 45:0.32 46:-1.98 47:-1.84 48:-1.28 49:0.4 50:0.4 51:0.4 52:0.17 53:0.05 54:0.06 55:-0.17 56:0 57:0 58:-0.16 59:0.06 60:0.07 61:0.19 
-0.2214660458895938 0:0.11 1:0.18 2:9.24 3:0 4:0 5:0 6:0.02 7:0.02 8:0.03 9:0.02 10:0.02 11:0.03 12:0.32 13:-0.05 14:0.57 15:-0.41 16:-1.05 17:-1.04 18:0.4 19:0.4 20:0.4 21:0.11 22:0.18 23:9.24 24:0 25:0 26:0 27:0.15 28:0.21 29:9.3 30:9.24 31:-0.17 32:0.06 33:0.06 34:0 35:0 36:0 37:0 38:0.01 39:0 40:0 41:0 42:0 43:0.24 44:-1.89 45:-0.7 46:-1.25 47:2.44 48:-0.95 49:0.4 50:0.4 51:0.4 52:0.17 53:0.06 54:0.06 55:-0.17 56:0 57:0 58:-0.16 59:0.06 60:0.07 61:0.19 
-0.055061555506895 0:-1.21 1:4.78 2:8.9 3:0.08 4:0.08 5:0.16 6:0.27 7:0.28 8:0.4 9:0.2 10:0.19 11:0.3 12:-0.34 13:-1.48 14:0.65 15:-1.23 16:1.36 17:-1.08 18:0.4 19:0.4 20:0.4 21:1.24 22:4.79 23:8.91 24:-1.68 25:0 26:0 27:-0.84 28:5.07 29:9.64 30:10.19 31:0.34 32:-0.1 33:0.25 34:0.02 35:0.01 36:0.01 37:0.14 38:0.1 39:0.1 40:0.09 41:0.07 42:0.08 43:1.75 44:-1.17 45:0.88 46:2.08 47:0.26 48:-0.23 49:0.4 50:0.4 51:0.4 52:0.36 53:0.14 54:0.27 55:0 56:-0.34 57:0 58:0.72 59:-0 60:0.47 61:0.44 
-0.0912367725236032 0:-0.89 1:3.94 2:9.52 3:0.15 4:0.21 5:0.19 6:0.38 7:0.46 8:0.44 9:0.25 10:0.26 11:0.36 12:1.73 13:-2.05 14:-0.02 15:1.91 16:2.91 17:-1.37 18:0.5 19:0.4 20:0.4 21:0.96 22:3.96 23:9.53 24:-1.18 25:0 26:0 27:0.12 28:4.23 29:10.16 30:10.36 31:-0.12 32:-0.05 33:-0.05 34:0.03 35:0.03 36:0.01 37:0.19 38:0.16 39:0.12 40:0.15 41:0.11 42:0.09 43:0.91 44:-0.96 45:0.79 46:-0.78 47:-0.52 48:-0.97 49:0.6 50:0.7 51:0.5 52:0.21 53:0.16 54:0.12 55:-0.26 56:-0.38 57:-0.17 58:0.27 59:0.11 60:0.18 61:0.29 
-0.05391407203343048 0:-0.9 1:4.29 2:9.46 3:0.84 4:1.27 5:0.96 6:0.92 7:1.13 8:0.98 9:0.55 10:0.85 11:0.73 12:-1.3 13:-0.12 14:-0.26 15:1.18 16:-1.36 17:-1.1 18:0.6 19:0.4 20:0.4 21:1.26 22:4.42 23:9.5 24:-3.2 25:0 26:0 27:0.12 28:5.85 29:10.96 30:10.54 31:0.63 32:0.22 33:0.12 34:0.96 35:0.16 36:0.04 37:0.98 38:0.4 39:0.19 40:0.84 41:0.26 42:0.15 43:0.53 44:1.88 45:0.1 46:-1.57 47:2.27 48:-1.34 49:0.5 50:0.5 51:0.6 52:1.13 53:0.44 54:0.21 55:-0.25 56:-0.06 57:-0.15 58:2.19 59:1.31 60:0.42 61:0.96 
-0.01329669446589801 0:-0.74 1:3.05 2:11.95 3:5.77 4:0.77 5:4.56 6:2.4 7:0.88 8:2.14 9:1.98 10:0.66 11:1.75 12:-0.14 13:-0.9 14:-0.34 15:-1.45 16:-0.6 17:-1.47 18:0.5 19:0.4 20:0.4 21:2.39 22:3.16 23:12.12 24:-4.27 25:0 26:0 27:2.85 28:4.11 29:14.51 30:12.64 31:0.71 32:-1.06 33:-0.6 34:0.62 35:0.71 36:0.56 37:0.79 38:0.84 39:0.75 40:0.66 41:0.71 42:0.64 43:-0.18 44:0.31 45:-0.04 46:-1.67 47:-1.64 48:-1.63 49:0.5 50:0.5 51:0.7 52:1.03 53:1.33 54:0.93 55:-0.53 56:-1.99 57:-1.67 58:1.66 59:0.32 60:0.55 61:1.67 
-0.2321287666535235 0:1 1:4.4 2:11.39 3:1.27 4:3.08 5:8.14 6:1.13 7:1.75 8:2.85 9:0.91 10:1.37 11:2.45 12:-0.11 13:0.57 14:-0.42 15:-1.17 16:-0.89 17:-1.51 18:0.6 19:0.4 20:0.4 21:1.46 22:4.7 23:11.71 24:-0.96 25:0 26:0 27:2.85 28:7.8 29:14.51 30:12.57 31:1.5 32:-1.24 33:-1.78 34:0.07 35:0.72 36:0.89 37:0.27 38:0.85 39:0.95 40:0.19 41:0.63 42:0.69 43:-1.26 44:1.11 45:-0.02 46:0.54 47:0.04 48:-0.79 49:0.4 50:0.5 51:0.4 52:1.52 53:1.48 54:1.99 55:0 56:-1.99 57:-3.38 58:1.78 59:0.71 60:-0.04 61:2.85 
-0.1023764281948152 0:-0.84 1:5.14 2:8.61 3:7.22 4:2.73 5:5.63 6:2.69 7:1.65 8:2.37 9:2.18 10:1.38 11:1.7 12:-0.62 13:-0.07 14:-0.65 15:-1.33 16:-1.43 17:-0.29 18:0.7 19:0.4 20:0.4 21:2.68 22:5.37 23:8.9 24:-5.52 25:0 26:0 27:1.95 28:7.8 29:12.11 30:10.46 31:0.68 32:-0.8 33:-2.75 34:1.42 35:1.66 36:0.91 37:1.19 38:1.29 39:0.96 40:1.03 41:1.04 42:0.77 43:-0.52 44:-0.28 45:0.06 46:-1.63 47:-1.44 48:-1.55 49:0.6 50:0.8 51:0.4 52:1.32 53:1.46 54:2.9 55:-1.28 56:-2.93 57:-4.12 58:1.78 59:0.85 60:-1.36 61:3.37 
-0.159815005355038 0:-2.74 1:3.4 2:8.35 3:8.24 4:3.44 5:4.82 6:2.87 7:1.85 8:2.2 9:2.56 10:1.55 11:1.61 12:0.24 13:0.49 14:-0.76 15:-1.97 16:-1.52 17:-0.31 18:0.7 19:0.4 20:0.4 21:3.86 22:3.83 23:8.6 24:-5.71 25:0 26:0 27:0.96 28:6.27 29:10.88 30:9.81 31:-0.59 32:-0.5 33:-2.67 34:1.49 35:1.57 36:0.9 37:1.22 38:1.25 39:0.95 40:1 41:0.93 42:0.71 43:-0.14 44:-0.91 45:-0.06 46:-1.43 47:-0.75 48:-1.44 49:0.7 50:0.8 51:0.4 52:1.3 53:1.29 54:2.82 55:-2.71 56:-2.93 57:-4.12 58:1.06 59:0.85 60:-1.36 61:3.18 
-0.1486517760514239 0:-4.07 1:2.14 2:8.74 3:5.62 4:0.22 5:2.56 6:2.37 7:0.47 8:1.6 9:1.77 10:0.34 11:1.35 12:1.27 13:-0.83 14:0.34 15:-0.24 16:-0.16 17:-1.58 18:0.6 19:0.4 20:0.4 21:4.65 22:2.19 23:8.87 24:-5.71 25:0 26:0 27:0.96 28:2.7 29:11.32 30:10.1 31:-0.1 32:0.23 33:-2.19 34:1.86 35:0.26 36:0.19 37:1.36 38:0.51 39:0.43 40:1.12 41:0.41 42:0.35 43:-0.66 44:-0.66 45:-0.1 46:-1.2 47:-1.17 48:-1.34 49:0.6 50:0.5 51:0.4 52:1.3 53:0.54 54:2.23 55:-2.71 56:-0.72 57:-2.91 58:1.28 59:0.85 60:-1.51 61:2.56 
-0.09855522878750436 0:-5.11 1:2.26 2:7.94 3:0.28 4:0.47 5:2.74 6:0.53 7:0.68 8:1.66 9:0.37 10:0.55 11:1.22 12:-0.23 13:0.39 14:0.6 15:-0.41 16:-1.34 17:-0.75 18:0.4 19:0.4 20:0.4 21:5.14 22:2.35 23:8.09 24:-6.16 25:0 26:0 27:-4.17 28:3.45 29:11.32 30:9.77 31:0.64 32:0.32 33:-1.46 34:0.37 35:0.11 36:1.31 37:0.61 38:0.33 39:1.15 40:0.54 41:0.24 42:0.86 43:-0.38 44:-0.25 45:1.22 46:-1.78 47:-0.82 48:-0.4 49:0.6 50:0.5 51:0.5 52:0.87 53:0.45 54:1.82 55:-0.24 56:-0.32 57:-2.35 58:1.28 59:0.85 60:0.85 61:1.96 
-0.1394192545244645 0:-4.35 1:0.74 2:9.05 3:0.27 4:0.21 5:0.64 6:0.52 7:0.45 8:0.8 9:0.44 10:0.4 11:0.71 12:-0.46 13:-0.54 14:0.05 15:-1.48 16:-1.58 17:-1.72 18:0.4 19:0.5 20:0.4 21:4.38 22:0.85 23:9.08 24:-5.26 25:-0.04 26:0 27:-3.76 28:1.16 29:10.28 30:10.09 31:0.16 32:0.18 33:-0.39 34:0.01 35:0.01 36:0.04 37:0.12 38:0.09 39:0.2 40:0.09 41:0.08 42:0.11 43:-1.03 44:-0.11 45:2.01 46:-0.43 47:-1.59 48:2.79 49:0.5 50:0.4 51:0.5 52:0.2 53:0.2 54:0.43 55:-0.09 56:0 57:-0.51 58:0.28 59:0.29 60:0.16 61:0.5 
-0.03331328440876481 0:-5 1:1.52 2:8.97 3:0.05 4:0.04 5:0.03 6:0.22 7:0.19 8:0.16 9:0.19 10:0.15 11:0.12 12:-0.08 13:-0.4 14:-0.33 15:-1.7 16:-1.26 17:-0.51 18:0.4 19:0.4 20:0.4 21:5 22:1.53 23:8.97 24:-5.32 25:0 26:0 27:-4.67 28:1.75 29:9.24 30:10.38 31:0.51 32:-0 33:-0.82 34:0.02 35:0 36:0.05 37:0.15 38:0.03 39:0.23 40:0.13 41:0.03 42:0.21 43:0.44 44:-0.37 45:0.05 46:-1.52 47:-1.52 48:-1.92 49:0.4 50:0.5 51:0.4 52:0.53 53:0.03 54:0.85 55:0 56:-0.06 57:-1.09 58:0.76 59:0.03 60:-0.49 61:0.97 
-0.2203572491832751 0:-4.11 1:2.56 2:9.04 3:0.03 4:0.13 5:0.02 6:0.18 7:0.36 8:0.13 9:0.1 10:0.22 11:0.08 12:-1.7 13:-2 14:1.55 15:2.07 16:2.71 17:1.72 18:0.4 19:0.4 20:0.4 21:4.11 22:2.58 23:9.04 24:-4.58 25:0 26:0 27:-3.94 28:2.77 29:9.38 30:10.26 31:0.2 32:-0.13 33:-0.23 34:0 35:0.01 36:0.01 37:0.06 38:0.09 39:0.1 40:0.05 41:0.08 42:0.09 43:0.51 44:-0.13 45:-0.05 46:-0.56 47:-1.65 48:-1.63 49:0.4 50:0.4 51:0.4 52:0.21 53:0.16 54:0.25 55:0 56:-0.28 57:-0.39 58:0.33 59:-0.01 60:-0.09 61:0.34 
-0.04983433747010274 0:-4.87 1:2.22 2:8.76 3:0.34 4:0.27 5:0.21 6:0.58 7:0.52 8:0.46 9:0.42 10:0.41 11:0.33 12:-0.53 13:0.36 14:0.95 15:-0.71 16:-1.02 17:0.12 18:0.4 19:0.4 20:0.4 21:4.91 22:2.27 23:8.77 24:-5.96 25:0 26:0 27:-3.96 28:3.2 29:9.81 30:10.29 31:0.31 32:-0.36 33:-0.95 34:0.03 35:0.02 36:0.06 37:0.18 38:0.13 39:0.24 40:0.13 41:0.09 42:0.13 43:1.04 44:0.26 45:2.03 46:-0.63 47:-0.64 48:2.85 49:0.4 50:0.4 51:0.4 52:0.36 53:0.38 54:0.98 55:0 56:-0.59 57:-1.1 58:0.64 59:-0.13 60:-0.29 61:1.09 
-0.02421205991306027 0:-1.39 1:0.35 2:10.03 3:0.03 4:0.03 5:0.11 6:0.16 7:0.18 8:0.32 9:0.11 10:0.14 11:0.24 12:-1.26 13:0.28 14:-1.08 15:0.86 16:-1.33 17:-0.58 18:0.4 19:0.4 20:0.4 21:1.4 22:0.39 23:10.04 24:-1.78 25:0 26:0 27:-1.2 28:0.66 29:10.32 30:10.14 31:0.07 32:0.05 33:0.09 34:0.04 35:0 36:0.02 37:0.2 38:0.05 39:0.16 40:0.15 41:0.04 42:0.11 43:1.31 44:1.82 45:1.01 46:0.27 47:2.05 48:-0.63 49:0.6 50:0.4 51:0.8 52:0.2 53:0.07 54:0.17 55:-0.08 56:0 57:-0.07 58:0.54 59:0.19 60:0.39 61:0.18 
-0.05737243957002793 0:-0.81 1:0.36 2:10.36 3:0.51 4:0.13 5:0.27 6:0.71 7:0.36 8:0.52 9:0.64 10:0.3 11:0.42 12:-0.14 13:0.2 14:0.25 15:-2.03 16:-1.65 17:-1.39 18:0.4 19:0.6 20:0.4 21:1.06 22:0.5 23:10.37 24:-1.67 25:-0.14 26:0 27:-0.06 28:0.87 29:11.16 30:10.43 31:0.14 32:-0.16 33:-0.06 34:0.02 35:0.11 36:0.02 37:0.14 38:0.34 39:0.15 40:0.08 41:0.26 42:0.11 43:1.54 44:-0.14 45:0.15 46:1.84 47:-1.48 48:-1.1 49:0.6 50:0.5 51:0.7 52:0.19 53:0.36 54:0.15 55:-0.04 56:-0.63 57:-0.28 58:0.51 59:0.36 60:0.2 61:0.38 
-0.08040096913833289 0:0.04 1:0.12 2:10.49 3:4.77 4:2.45 5:3.88 6:2.18 7:1.57 8:1.97 9:1.8 10:1.3 11:1.62 12:-0.02 13:-0.3 14:0.32 15:-1.63 16:-1.64 17:-1.47 18:0.5 19:0.5 20:0.4 21:2.07 22:1.49 23:10.66 24:-3 25:-2.2 26:0 27:3.25 28:1.79 29:13.9 30:10.81 31:0.31 32:-0.32 33:1.4 34:0.26 35:0.45 36:0.12 37:0.51 38:0.67 39:0.34 40:0.42 41:0.55 42:0.27 43:-0.2 44:0.35 45:-0.39 46:-1.67 47:-1.63 48:-1.47 49:0.6 50:0.5 51:0.4 52:0.57 53:0.71 54:1.43 55:-0.42 56:-1.07 57:0 58:0.92 59:0.71 60:1.85 61:1.69 
-0.2477756408715708 0:-0.12 1:1.39 2:9.89 3:5.52 4:8.62 5:8.25 6:2.35 7:2.94 8:2.87 9:1.97 10:2.56 11:2.27 12:-0.05 13:0.08 14:-0.28 15:-1.62 16:-1.88 17:-1.51 18:0.5 19:0.6 20:0.4 21:2.23 22:3.11 23:10.26 24:-3.61 25:-2.2 26:0 27:3.25 28:5.04 29:13.9 30:10.76 31:1.49 32:0.32 33:1.04 34:1.23 35:0.26 36:0.31 37:1.11 38:0.51 39:0.55 40:0.93 41:0.36 42:0.43 43:-0.1 44:-1.38 45:-0.62 46:-1.48 47:0.51 48:-1.1 49:0.5 50:0.5 51:0.4 52:1.83 53:0.58 54:1.16 55:-0.42 56:-0.9 57:0 58:2.87 59:0.73 60:1.7 61:2.13 
-0.07670771034206478 0:-0.22 1:3.41 2:9.8 3:1.88 4:0.31 5:8.32 6:1.37 7:0.55 8:2.89 9:1 10:0.42 11:2.06 12:0.39 13:0.16 14:0.36 15:-1.12 16:-1.22 17:-1.11 18:0.6 19:0.4 20:0.4 21:1.32 22:3.45 23:10.17 24:-1.98 25:0 26:0 27:1.99 28:4.38 29:14.53 30:10.51 31:0.42 32:0.76 33:0.47 34:0.3 35:0.05 36:1.58 37:0.55 38:0.21 39:1.26 40:0.46 41:0.15 42:1.1 43:-0.34 44:0.35 45:-0.26 46:-1.54 47:-0.98 48:-1.79 49:0.6 50:0.4 51:0.5 52:0.67 53:0.78 54:1.28 55:-0.51 56:0 57:-1.29 58:1.12 59:1.15 60:1.98 61:1.58 
-0.01262885043203596 0:-1.71 1:3.68 2:9.84 3:7.24 4:0.46 5:8.64 6:2.69 7:0.68 8:2.94 9:2.4 10:0.57 11:2.02 12:0.17 13:0.38 14:0.18 15:-1.82 16:-1.34 17:-0.93 18:0.5 19:0.4 20:0.4 21:3.07 22:3.74 23:10.22 24:-5.06 25:0 26:0 27:1.99 28:4.87 29:14.53 30:11.09 31:-0.25 32:0.35 33:-0.69 34:1.21 35:0.24 36:0.63 37:1.1 38:0.49 39:0.79 40:0.84 41:0.42 42:0.57 43:-0.51 44:-0.56 45:0.82 46:-1.25 47:-1.53 48:-0.09 49:0.6 50:0.6 51:0.5 52:1.08 53:0.58 54:1.02 55:-2.09 56:-0.43 57:-1.77 58:0.95 59:0.79 60:1.08 61:1.5 
-0.03016937297844025 0:-5.2 1:3.03 2:8.05 3:0.37 4:1.36 5:0.4 6:0.61 7:1.16 8:0.63 9:0.5 10:0.93 11:0.48 12:0.36 13:0.19 14:0.08 15:-1.36 16:-1.2 17:-1.15 18:0.4 19:0.4 20:0.4 21:5.24 22:3.22 23:8.07 24:-5.86 25:0 26:0 27:-4.08 28:5.11 29:9.06 30:10.12 31:-0.53 32:0.39 33:0.41 34:0.18 35:0.02 36:0.36 37:0.43 38:0.13 39:0.6 40:0.38 41:0.1 42:0.48 43:-0.06 44:-0.57 45:0.2 46:-1.92 47:-0.92 48:-1.45 49:0.4 50:0.4 51:0.5 52:0.67 53:0.41 54:0.7 55:-1.06 56:0 57:-0.38 58:-0.02 59:0.52 60:1.38 61:0.96 
-0.002812851418209425 0:-3.77 1:3.16 2:8.31 3:2.12 4:0.57 5:1 6:1.45 7:0.75 8:1 9:1.26 10:0.58 11:0.85 12:0.34 13:-0.59 14:-0.21 15:-1.77 16:-0.68 17:-1.65 18:0.4 19:0.4 20:0.4 21:4.02 22:3.24 23:8.36 24:-5.28 25:0 26:0 27:-1.58 28:4.05 29:9.62 30:9.81 31:-0.01 32:0.22 33:0.78 34:0.11 35:0.07 36:0.26 37:0.34 38:0.26 39:0.51 40:0.28 41:0.16 42:0.37 43:0.56 44:1.66 45:1.47 46:-1.15 47:2 48:1.04 49:0.5 50:0.6 51:0.4 52:0.32 53:0.33 54:0.92 55:-0.34 56:-0.08 57:0 58:0.65 59:0.9 60:2.06 61:0.88 
-0.3061761413598263 0:-1.04 1:2.42 2:10.17 3:13.18 4:2.37 5:8.72 6:3.63 7:1.54 8:2.95 9:3.26 10:1.28 11:2.59 12:-0.11 13:-0.49 14:0.18 15:-2.01 16:-1.42 17:-1.87 18:0.5 19:0.6 20:0.4 21:3.6 22:2.83 23:10.55 24:-5.28 25:-0.09 26:0 27:3.15 28:4.05 29:14.02 30:11.3 31:0.99 32:0.71 33:1.22 34:0.6 35:0.63 36:0.36 37:0.77 38:0.8 39:0.6 40:0.72 41:0.65 42:0.49 43:-0.07 44:0.54 45:0.42 46:-2.07 47:-1.37 48:-1.67 49:0.4 50:0.7 51:0.4 52:1.23 53:1.04 54:1.34 55:0 56:-0.16 57:0 58:1.84 59:1.99 60:2.06 61:1.88 
-0.150994838551636 0:1.15 1:2.98 2:12.15 3:1.97 4:3.35 5:2.73 6:1.4 7:1.83 8:1.65 9:1.09 10:1.45 11:1.46 12:-0.29 13:-0.62 14:-0.26 15:-0.89 16:-1.25 17:-1.67 18:0.5 19:0.6 20:0.4 21:1.76 22:3.45 23:12.25 24:-1.58 25:-0.09 26:0 27:3.15 28:5.09 29:14.02 30:12.75 31:0.88 32:0.38 33:0.94 34:1.23 35:1.25 36:0.37 37:1.11 38:1.12 39:0.61 40:0.9 41:0.91 42:0.49 43:-0.79 44:0.12 45:0.93 46:-1.11 47:-1.41 48:-0.96 49:0.6 50:0.7 51:0.4 52:1.37 53:1.13 54:1.1 55:-1.07 56:-1.34 57:0 58:1.84 59:1.99 60:2.01 61:1.92 
-0.2428084460059129 0:0.42 1:6.82 2:6.68 3:0.13 4:0.02 5:0.31 6:0.36 7:0.13 8:0.56 9:0.32 10:0.1 11:0.5 12:-0.02 13:-0.08 14:-0.25 15:-1.82 16:-1.43 17:-1.96 18:0.5 19:0.4 20:0.4 21:0.55 22:6.82 23:6.7 24:-0.09 25:0 26:0 27:0.87 28:7.02 29:7.3 30:9.58 31:0.17 32:0.18 33:-0.05 34:0.02 35:0.02 36:0.01 37:0.15 38:0.14 39:0.12 40:0.14 41:0.11 42:0.11 43:0.14 44:0.61 45:0.01 46:-1.99 47:-1.15 48:-2.16 49:0.4 50:0.4 51:0.5 52:0.22 53:0.22 54:0.12 55:0 56:0 57:-0.17 58:0.36 59:0.43 60:0.09 61:0.28 
-0.07865091607670753 0:-0.09 1:6.96 2:6.33 3:0.08 4:0.03 5:0.17 6:0.28 7:0.18 8:0.41 9:0.2 10:0.12 11:0.34 12:-0.75 13:1.59 14:0.82 15:-0.07 16:1.53 17:-1.08 18:0.5 19:0.4 20:0.4 21:0.28 22:6.96 23:6.35 24:-0.72 25:0 26:0 27:0.31 28:7.42 29:7.13 30:9.42 31:0.24 32:0.34 33:-0.16 34:0.01 35:0.01 36:0 37:0.08 38:0.1 39:0.02 40:0.07 41:0.08 42:0.01 43:0.37 44:-0.56 45:-0.37 46:-1.56 47:-1.27 48:-1.39 49:0.4 50:0.4 51:0.4 52:0.25 53:0.36 54:0.16 55:0 56:0 57:-0.19 58:0.36 59:0.45 60:-0.14 61:0.46 
-0.1222758649799439 0:-0.3 1:6.98 2:6.31 3:0.23 4:0.02 5:0.11 6:0.48 7:0.13 8:0.33 9:0.27 10:0.1 11:0.26 12:1.19 13:0.25 14:0.15 15:1.35 16:-1.71 17:-1.36 18:0.5 19:0.4 20:0.4 21:0.54 22:6.98 23:6.31 24:-1.01 25:0 26:0 27:0.9 28:7.15 29:6.82 30:9.42 31:-0.23 32:-0.26 33:0.28 34:0.07 35:0.07 36:0.04 37:0.27 38:0.26 39:0.19 40:0.24 41:0.21 42:0.14 43:-0.39 44:-0.88 45:1.28 46:-1.91 47:-0.79 48:-0.17 49:0.4 50:0.4 51:0.4 52:0.34 53:0.36 54:0.33 55:-0.64 56:-0.81 57:0 58:-0.01 59:-0.04 60:0.7 61:0.48 
-0.2785146716722191 0:0.01 1:6.55 2:7.2 3:0.07 4:0.01 5:0.06 6:0.27 7:0.1 8:0.25 9:0.15 10:0.08 11:0.14 12:-2.02 13:-0.3 14:1.87 15:2.87 16:-1.4 17:2.58 18:0.5 19:0.4 20:0.4 21:0.25 22:6.55 23:7.2 24:-0.73 25:0 26:0 27:0.21 28:6.69 29:7.89 30:9.74 31:-0.06 32:0.11 33:-0.05 34:0 35:0.02 36:0 37:0.03 38:0.13 39:0.02 40:0.03 41:0.12 42:0.01 43:-1.33 44:0.3 45:0.23 46:0.23 47:-1.89 48:-1.3 49:0.4 50:0.5 51:0.4 52:0.07 53:0.16 54:0.05 55:-0.14 56:-0.02 57:-0.08 58:-0.04 59:0.29 60:-0.02 61:0.16 
-0.1507411934211458 0:0.06 1:6.5 2:6.97 3:0.21 4:0.06 5:0.3 6:0.46 7:0.24 8:0.55 9:0.4 10:0.2 11:0.41 12:-0.46 13:-0.06 14:-1.03 15:-1.59 16:-1.83 17:-0.29 18:0.5 19:0.4 20:0.4 21:0.44 22:6.5 23:6.99 24:-0.72 25:0 26:0 27:0.52 28:6.77 29:7.46 30:9.54 31:-0.24 32:-0.28 33:0.13 34:0 35:0.01 36:0 37:0.06 38:0.1 39:0.03 40:0.04 41:0.08 42:0.03 43:1.64 44:0.62 45:-0 46:1.63 47:-0.86 48:-1.81 49:0.4 50:0.4 51:0.4 52:0.25 53:0.29 54:0.14 55:-0.29 56:-0.4 57:0 58:-0.08 59:-0.07 60:0.18 61:0.4 
-0.4036424145371464 0:0.12 1:6.23 2:7.42 3:0.28 4:0.02 5:0.1 6:0.53 7:0.14 8:0.31 9:0.31 10:0.1 11:0.19 12:2.14 13:-1.74 14:1.89 15:3.14 16:1.83 17:2.44 18:0.5 19:0.4 20:0.4 21:0.52 22:6.23 23:7.42 24:-0.14 25:0 26:0 27:1.6 28:6.33 29:8.26 30:9.7 31:0.1 32:0.09 33:-0.12 34:0.03 35:0.08 36:0.13 37:0.17 38:0.28 39:0.36 40:0.09 41:0.16 42:0.2 43:2.25 44:2.27 45:-2.28 46:3.49 47:3.56 48:3.57 49:0.4 50:0.7 51:0.4 52:0.19 53:0.28 54:0.36 55:0 56:-0 57:-1.14 58:0.58 59:0.87 60:-0 61:0.2 
-0.2119964638747662 0:-0.91 1:6.46 2:7.12 3:3.32 4:0.4 5:0.68 6:1.82 7:0.64 8:0.82 9:1.49 10:0.5 11:0.65 12:-0.48 13:0.89 14:-0.27 15:-1.38 16:-0.59 17:-1.55 18:0.6 19:0.4 20:0.4 21:1.96 22:6.49 23:7.16 24:-3.98 25:0 26:0 27:1.6 28:7.81 29:8.26 30:9.85 31:0.4 32:0.41 33:-0.63 34:0.1 35:0.19 36:0.34 37:0.32 38:0.43 39:0.59 40:0.29 41:0.36 42:0.52 43:-0.2 44:0.38 45:-0.03 46:-1.95 47:-1.68 48:-1.93 49:0.4 50:0.5 51:0.4 52:0.51 53:0.58 54:0.84 55:0 56:-0 57:-1.41 58:0.82 59:1.06 60:-0.01 61:0.87 
-0.2966989705674135 0:-3.4 1:7.69 2:4.47 3:0.4 4:0.03 5:1.17 6:0.63 7:0.17 8:1.08 9:0.52 10:0.14 11:0.96 12:0.4 13:-0.65 14:0.28 15:-1.23 16:-0.99 17:-1.82 18:0.4 19:0.4 20:0.4 21:3.45 22:7.69 23:4.59 24:-4.18 25:0 26:0 27:-2.21 28:7.87 29:5.97 30:9.59 31:0.22 32:0.19 33:0.03 34:0.45 35:1.52 36:0.03 37:0.67 38:1.23 39:0.17 40:0.58 41:1.1 42:0.14 43:0.59 44:0.43 45:-0.17 46:-1.4 47:-1.73 48:-1.64 49:0.5 50:0.5 51:0.5 52:0.67 53:1.18 54:0.16 55:-0.45 56:-1.09 57:-0.25 58:1.45 59:2.19 60:0.25 61:1.21 
-0.07027873226073408 0:-1.4 1:6.98 2:6.49 3:0.94 4:0.12 5:0.71 6:0.97 7:0.34 8:0.84 9:0.69 10:0.21 11:0.64 12:0.59 13:-2.01 14:0.13 15:-0.23 16:2.73 17:-0.95 18:0.5 19:0.4 20:0.4 21:1.67 22:6.99 23:6.54 24:-2.65 25:0 26:0 27:0.71 28:7.2 29:8.08 30:9.71 31:-0.74 32:-1.01 33:0.51 34:0.02 35:0.07 36:0.02 37:0.14 38:0.26 39:0.13 40:0.11 41:0.21 42:0.11 43:0.54 44:0.06 45:-0.91 46:-1.11 47:-1.65 48:-1 49:0.4 50:0.4 51:0.4 52:0.75 53:1.04 54:0.53 55:-0.9 56:-1.34 57:0 58:-0.48 59:-0.66 60:0.61 61:1.37 
-0.3286001557823272 0:2.53 1:5.85 2:6.94 3:1.43 4:2.32 5:3.7 6:1.2 7:1.52 8:1.92 9:0.86 10:1.18 11:1.54 12:-0.14 13:0.14 14:0.34 15:-0.85 16:-0.85 17:-1.41 18:0.4 19:0.4 20:0.4 21:2.78 22:6.02 23:7.18 24:0 25:0 26:0 27:4.64 28:8.72 29:9.9 30:9.56 31:-0.51 32:-0.39 33:0.05 34:0.64 35:0.28 36:0.34 37:0.8 38:0.53 39:0.59 40:0.65 41:0.44 42:0.46 43:-0.3 44:-0.34 45:-0.23 46:-1.57 47:-1.67 48:-1.6 49:0.7 50:0.7 51:0.6 52:0.91 53:0.64 54:0.56 55:-1.69 56:-1.14 57:-0.72 58:0.42 59:0.19 60:0.78 61:1.06 
-0.1150655865298228 0:3.22 1:5.34 2:6.69 3:0.31 4:0.11 5:0.68 6:0.56 7:0.33 8:0.82 9:0.44 10:0.25 11:0.63 12:-0.33 13:0.68 14:-0.9 15:-1.41 16:-0.5 17:-0.89 18:0.4 19:0.4 20:0.4 21:3.27 22:5.35 23:6.74 24:0 25:0 26:0 27:3.88 28:6.05 29:7.5 30:9.19 31:0.27 32:-0.15 33:-0.15 34:0.03 35:0.06 36:0.02 37:0.17 38:0.24 39:0.14 40:0.12 41:0.18 42:0.12 43:-0.26 44:0.66 45:0.03 46:-1.13 47:-1.08 48:-1.87 49:0.4 50:0.5 51:0.5 52:0.31 53:0.27 54:0.2 55:0 56:-0.4 57:-0.34 58:0.49 59:0.26 60:0.03 61:0.44 
-0.06407680699511356 0:3.17 1:5.3 2:7.01 3:0.23 4:0.08 5:2.93 6:0.48 7:0.28 8:1.71 9:0.37 10:0.18 11:1.38 12:-0.51 13:1.83 14:0.29 15:-1.04 16:2.18 17:-1.44 18:0.4 19:0.4 20:0.4 21:3.2 22:5.3 23:7.19 24:0 25:0 26:0 27:3.78 28:6.05 29:9.81 30:9.43 31:-0.08 32:0.18 33:-0.01 34:0.1 35:0.1 36:0.01 37:0.32 38:0.32 39:0.1 40:0.24 41:0.27 42:0.07 43:-0.6 44:-0.67 45:-1.32 46:-1.04 47:-1.49 48:1.01 49:0.5 50:0.5 51:0.6 52:0.31 53:0.35 54:0.1 55:-0.68 56:-0.32 57:-0.26 58:0.3 59:0.47 60:0.09 61:0.45 
-0.1458951936236927 0:0.12 1:4.87 2:6.88 3:6.45 4:1.24 5:8.61 6:2.54 7:1.12 8:2.93 9:2.06 10:0.92 11:2.33 12:-0.02 13:-0.1 14:-0.47 15:-1.69 16:-1.57 17:-1.35 18:0.7 19:0.4 20:0.4 21:2.41 22:4.99 23:7.42 24:-3.18 25:0 26:0 27:3.79 28:6.51 29:10.82 30:9.17 31:0.41 32:-0.04 33:-0.11 34:0.06 35:0.29 36:0.04 37:0.25 38:0.54 39:0.2 40:0.17 41:0.5 42:0.16 43:-1.74 44:0.02 45:0.21 46:1.93 47:-2.05 48:-1.46 49:0.5 50:0.5 51:0.5 52:0.47 53:0.51 54:0.22 55:-0.26 56:-0.7 57:-0.41 58:0.57 59:0.58 60:0.18 61:0.72 
-0.1678851109747642 0:-1.34 1:5.86 2:5.25 3:3.65 4:1.03 5:5.71 6:1.91 7:1.01 8:2.39 9:1.62 10:0.82 11:2.11 12:0.6 13:-0.22 14:-0.05 15:-1.46 16:-1.52 17:-1.85 18:0.6 19:0.4 20:0.4 21:2.25 22:5.94 23:5.72 24:-3.18 25:0 26:0 27:1.72 28:7.18 29:8.25 30:8.51 31:0.14 32:-0.08 33:-0.05 34:0.26 35:0.75 36:0.04 37:0.51 38:0.87 39:0.21 40:0.38 41:0.57 42:0.17 43:-1.05 44:-1.51 45:0.84 46:0.04 47:1.15 48:-0.98 49:0.5 50:0.5 51:0.6 52:0.5 53:0.83 54:0.2 55:-1.04 56:-2.27 57:-0.24 58:0.57 59:0.58 60:0.36 61:0.74 
-0.002949432188188679 0:0.81 1:5.1 2:7.84 3:0.21 4:0.2 5:0.2 6:0.45 7:0.45 8:0.45 9:0.28 10:0.31 11:0.29 12:1.92 13:-1.01 14:1.17 15:2.42 16:0.03 17:0.53 18:0.4 19:0.4 20:0.4 21:0.92 22:5.12 23:7.85 24:0 25:0 26:0 27:2.04 28:5.55 29:8.9 30:9.41 31:0.37 32:0.22 33:-0.31 34:0.05 35:0.02 36:0.02 37:0.22 38:0.16 39:0.13 40:0.14 41:0.12 42:0.11 43:-1.83 44:0.51 45:0.07 46:2.21 47:-0.89 48:-1.9 49:0.5 50:0.5 51:0.4 52:0.43 53:0.26 54:0.34 55:-0.22 56:-0.02 57:-0.46 58:0.52 59:0.48 60:-0.14 61:0.58 
-0.01282795249391019 0:0.55 1:5.45 2:7.68 3:0.01 4:0 5:0.22 6:0.11 7:0.07 8:0.47 9:0.09 10:0.06 11:0.41 12:0.08 13:-0.02 14:0.31 15:-1.68 16:-1.62 17:-1.82 18:0.4 19:0.4 20:0.4 21:0.56 22:5.45 23:7.69 24:0 25:0 26:0 27:0.71 28:5.53 29:8.32 30:9.43 31:0.14 32:0.1 33:-0.08 34:0.02 35:0.03 36:0 37:0.13 38:0.16 39:0.03 40:0.11 41:0.13 42:0.02 43:0.21 44:-0.76 45:1.91 46:-1.86 47:-0.52 48:2.45 49:0.4 50:0.7 51:0.5 52:0.19 53:0.18 54:0.09 55:0 56:-0.25 57:-0.1 58:0.31 59:0.26 60:0.01 61:0.24 
-0.09613312969627706 0:0.5 1:5.38 2:7.08 3:0.03 4:0.04 5:0.88 6:0.19 7:0.2 8:0.94 9:0.15 10:0.11 11:0.79 12:0.83 13:-2.19 14:0.56 15:-0.94 16:3.31 17:-1.49 18:0.4 19:0.4 20:0.4 21:0.53 22:5.39 23:7.13 24:0 25:0 26:0 27:0.86 28:5.49 29:8.6 30:8.93 31:-0.06 32:-0.09 33:-0.09 34:0.08 35:0.04 36:0.01 37:0.28 38:0.2 39:0.09 40:0.21 41:0.15 42:0.06 43:-0.99 44:-1.15 45:1.48 46:-0.68 47:-0.34 48:1.21 49:0.5 50:0.7 51:0.5 52:0.27 53:0.21 54:0.12 55:-0.63 56:-0.52 57:-0.17 58:0.16 59:0.04 60:0.14 61:0.28 
-0.1334518419125978 0:-0.16 1:5.35 2:7.78 3:0.07 4:0.03 5:0.47 6:0.27 7:0.18 8:0.68 9:0.23 10:0.14 11:0.6 12:0.2 13:-0.21 14:-0.24 15:-1.8 16:-1.39 17:-1.84 18:0.7 19:0.4 20:0.4 21:0.3 22:5.35 23:7.81 24:-0.53 25:0 26:0 27:0.18 28:5.61 29:8.51 30:9.46 31:-0.2 32:-0.08 33:-0.11 34:0.02 35:0.01 36:0.03 37:0.12 38:0.12 39:0.16 40:0.11 41:0.08 42:0.09 43:0.27 44:-1.05 45:-2.21 46:-1.74 47:0.6 48:3.38 49:0.4 50:0.6 51:0.4 52:0.23 53:0.14 54:0.19 55:-0.33 56:-0.36 57:-0.57 58:-0 59:0.08 60:-0.01 61:0.28 
